digraph Tree {
node [shape=box] ;
0 [label="ExternalRiskEstimate <= 73.5\ngini = 0.494\nsamples = 588\nvalue = [325, 263]"] ;
1 [label="ExternalRiskEstimate <= 63.5\ngini = 0.388\nsamples = 338\nvalue = [249, 89]"] ;
0 -> 1 [labeldistance=2.5, labelangle=45, headlabel="True"] ;
2 [label="NetFractionRevolvingBurden <= 116.0\ngini = 0.192\nsamples = 121\nvalue = [108, 13]"] ;
1 -> 2 ;
3 [label="NumTrades60Ever2DerogPubRec <= 0.5\ngini = 0.18\nsamples = 120\nvalue = [108, 12]"] ;
2 -> 3 ;
4 [label="gini = 0.285\nsamples = 58\nvalue = [48, 10]"] ;
3 -> 4 ;
5 [label="gini = 0.062\nsamples = 62\nvalue = [60, 2]"] ;
3 -> 5 ;
6 [label="gini = 0.0\nsamples = 1\nvalue = [0, 1]"] ;
2 -> 6 ;
7 [label="PercentTradesWBalance <= 39.0\ngini = 0.455\nsamples = 217\nvalue = [141, 76]"] ;
1 -> 7 ;
8 [label="MSinceMostRecentDelq <= 41.5\ngini = 0.43\nsamples = 16\nvalue = [5, 11]"] ;
7 -> 8 ;
9 [label="gini = 0.153\nsamples = 12\nvalue = [1, 11]"] ;
8 -> 9 ;
10 [label="gini = 0.0\nsamples = 4\nvalue = [4, 0]"] ;
8 -> 10 ;
11 [label="NetFractionRevolvingBurden <= 76.5\ngini = 0.438\nsamples = 201\nvalue = [136, 65]"] ;
7 -> 11 ;
12 [label="gini = 0.46\nsamples = 173\nvalue = [111, 62]"] ;
11 -> 12 ;
13 [label="gini = 0.191\nsamples = 28\nvalue = [25, 3]"] ;
11 -> 13 ;
14 [label="PercentTradesWBalance <= 72.0\ngini = 0.423\nsamples = 250\nvalue = [76, 174]"] ;
0 -> 14 [labeldistance=2.5, labelangle=-45, headlabel="False"] ;
15 [label="AverageMInFile <= 38.5\ngini = 0.364\nsamples = 192\nvalue = [46, 146]"] ;
14 -> 15 ;
16 [label="gini = 0.0\nsamples = 4\nvalue = [4, 0]"] ;
15 -> 16 ;
17 [label="MSinceMostRecentDelq <= 22.5\ngini = 0.347\nsamples = 188\nvalue = [42, 146]"] ;
15 -> 17 ;
18 [label="gini = 0.5\nsamples = 26\nvalue = [13, 13]"] ;
17 -> 18 ;
19 [label="gini = 0.294\nsamples = 162\nvalue = [29, 133]"] ;
17 -> 19 ;
20 [label="ExternalRiskEstimate <= 77.5\ngini = 0.499\nsamples = 58\nvalue = [30, 28]"] ;
14 -> 20 ;
21 [label="NetFractionRevolvingBurden <= 81.0\ngini = 0.32\nsamples = 25\nvalue = [20, 5]"] ;
20 -> 21 ;
22 [label="gini = 0.278\nsamples = 24\nvalue = [20, 4]"] ;
21 -> 22 ;
23 [label="gini = 0.0\nsamples = 1\nvalue = [0, 1]"] ;
21 -> 23 ;
24 [label="PercentInstallTrades <= 53.5\ngini = 0.422\nsamples = 33\nvalue = [10, 23]"] ;
20 -> 24 ;
25 [label="gini = 0.32\nsamples = 25\nvalue = [5, 20]"] ;
24 -> 25 ;
26 [label="gini = 0.469\nsamples = 8\nvalue = [5, 3]"] ;
24 -> 26 ;
}